{
    "biases": [
        [
            [
                -0.06353044002949697
            ],
            [
                -0.5409205227495852
            ],
            [
                0.47563513369295357
            ],
            [
                2.157568868812668
            ],
            [
                -0.48004132653967435
            ],
            [
                0.9861094913706492
            ],
            [
                1.7503203141842394
            ],
            [
                0.2925195862455237
            ],
            [
                0.015563668045457812
            ],
            [
                0.946862654326573
            ],
            [
                -0.8996128890854416
            ],
            [
                -0.2906294355165731
            ],
            [
                -0.06732335791996774
            ],
            [
                0.7846750956352931
            ],
            [
                -1.7765432151067875
            ],
            [
                -0.45591217106844684
            ]
        ],
        [
            [
                0.724525917102971
            ],
            [
                0.6743107886536578
            ],
            [
                -0.5995881837064357
            ],
            [
                2.435534623243893
            ],
            [
                -0.4974722830994471
            ],
            [
                -0.026763554879432744
            ],
            [
                0.25865090495747267
            ],
            [
                0.7842850901279016
            ]
        ],
        [
            [
                0.8243629663803435
            ],
            [
                0.4090266466786095
            ],
            [
                1.0746586252519283
            ]
        ]
    ],
    "sizes": [
        4,
        16,
        8,
        3
    ],
    "weights": [
        [
            [
                -0.8994349218571157,
                -0.13604624065896798,
                -0.048376284301037166,
                1.0559101572914684
            ],
            [
                0.3532468346996638,
                -0.11099642675019898,
                0.7019528982777135,
                -0.3650543969169884
            ],
            [
                1.427656171842747,
                -0.3700383816882991,
                0.24553539414977546,
                -1.3971030121053156
            ],
            [
                0.5755145130973277,
                -0.7483223222609984,
                0.4311919589828214,
                0.6302604781468224
            ],
            [
                -0.5708191420548214,
                -0.09225427279211082,
                1.0292438573571834,
                -1.6884437660092397
            ],
            [
                -0.22099175463098175,
                0.4755751813177213,
                1.228398047066178,
                -0.5942220670082492
            ],
            [
                0.43632536703437286,
                -1.1888071536972726,
                -1.2449577073534641,
                0.23123898463734352
            ],
            [
                0.8957453431991698,
                -0.17614806114580234,
                0.06402096271163792,
                0.7234087686978328
            ],
            [
                -0.07997613292641591,
                -0.5073144316228336,
                0.7909267147195773,
                -0.17905531228047505
            ],
            [
                -1.2244875834771767,
                0.9868081487428244,
                2.6032276119344795,
                -0.014377947826694748
            ],
            [
                -0.2013810735305626,
                -0.5911023086865465,
                1.2928682790482298,
                0.8196292915784528
            ],
            [
                -0.9149524515422754,
                0.15813769765670846,
                0.4836446458822003,
                -1.3105096989956218
            ],
            [
                0.1482755317480755,
                -1.1156856098643244,
                1.0597570905659341,
                -0.35026394852309417
            ],
            [
                1.8573950966619068,
                0.019357584896640932,
                -2.4359409069547744,
                -0.7822881289282431
            ],
            [
                0.2751361361972183,
                -0.6782742913479908,
                0.9842778931036196,
                -1.0031933621645504
            ],
            [
                -0.40170059043273176,
                1.325463354823327,
                -0.18981018484408588,
                -1.9063381074055896
            ]
        ],
        [
            [
                0.9690394866121119,
                -0.6192321739302378,
                -0.3843187434173794,
                -0.4544965008114499,
                0.5898701448834568,
                0.5002322652705584,
                0.49460824877527576,
                0.7659586016974973,
                -0.44131641001331573,
                -0.29873671668763657,
                0.8895933618921912,
                1.6792862342461716,
                -1.2734131694441777,
                0.9478597293135118,
                -1.3240898420438167,
                0.6077535380071715
            ],
            [
                -0.5631818412627696,
                -0.4351982973719615,
                0.5304089985687735,
                0.5819774211559654,
                1.1995214156856977,
                -0.7428945607434913,
                0.5465138547238478,
                0.4023961375669976,
                -0.5668210242202395,
                0.14571033434206998,
                -0.8986327608243253,
                0.4399449123170007,
                -0.2802276003003267,
                -0.7256944389386074,
                -1.4837706787554588,
                1.0734345798488478
            ],
            [
                -0.7452562315657977,
                -0.03428099513911513,
                -0.6844987040524375,
                0.7256436408707615,
                0.40007979909479624,
                -0.8682832856851631,
                1.099071208284237,
                0.42398559540555714,
                0.764001220523283,
                0.1610441671100419,
                0.7735301320632768,
                -1.4388753160894012,
                1.6585141553874079,
                -1.8632132462595465,
                -0.34472540202909496,
                0.7567984802507229
            ],
            [
                -2.342281665526441,
                0.1000499255514794,
                -0.6522692005068803,
                0.5983820077581041,
                -0.2199864060642698,
                1.1157667473923303,
                -0.9279368565949676,
                0.9044688112855573,
                0.8144981077448467,
                -0.9191097437957692,
                -0.06007991315838971,
                0.2750539785063982,
                0.12068293020563446,
                -1.2375788812494533,
                -1.2324140856298202,
                0.5634551587689445
            ],
            [
                1.3569928021609943,
                0.508435167766839,
                -0.17565071154398834,
                1.1282341588114633,
                0.1756322522395824,
                -1.9556279697762229,
                -1.2334094271901115,
                0.06610049577286146,
                0.33867907865306685,
                -0.44691240278251054,
                0.9158982021731342,
                0.9402593207748057,
                0.39360479918124314,
                0.9782191988494463,
                -0.5160974018972855,
                -0.6043394066739385
            ],
            [
                1.2551640578687209,
                0.35935705606512963,
                0.9118484689078116,
                -0.6843008700361543,
                0.22147286582306253,
                1.7348782294260734,
                1.168783229055794,
                -1.4010192204513137,
                -0.7013262961066047,
                1.5249913043001002,
                -1.0880701774366743,
                -1.166218239492307,
                1.2576613052601449,
                1.02634973563831,
                0.006121671711734285,
                0.20358196548973428
            ],
            [
                1.6716389991297074,
                1.051741936892545,
                0.21171799661709356,
                -0.9150758624027787,
                0.21599184938890392,
                0.002405930816421094,
                -0.346165900932537,
                0.4782436589359382,
                -0.892262226525642,
                1.1313923852519014,
                2.552547967872742,
                -0.5026226904097759,
                -0.8064851093572654,
                -0.6145865196412458,
                -0.307255356218952,
                1.1999137068778425
            ],
            [
                0.37476013358655097,
                -1.7257324988818379,
                -1.2316045512173188,
                0.9313719528138168,
                0.158669411674772,
                -1.4096095807837312,
                -1.3451540171022343,
                0.009426342482274008,
                0.24989809223171566,
                -0.3089543341306821,
                -0.684610371013248,
                -0.6484900794115995,
                -0.3881593251587739,
                0.588388089367694,
                -1.1333450199615944,
                -0.3353390867187335
            ]
        ],
        [
            [
                0.89371268072449,
                0.8285515343072931,
                -1.5853259105505988,
                -1.1044507735011044,
                -0.3250236242251759,
                0.1600470246558872,
                -0.2374100365666306,
                -0.5317878968430082
            ],
            [
                -0.606146573658812,
                -0.7684136226361933,
                0.2780080612253529,
                -0.30740224968411345,
                1.960865083955469,
                -0.6045788851336698,
                -0.7404876856330929,
                0.21521157437186203
            ],
            [
                -1.1968047773008288,
                -1.4606959998986035,
                1.1956873481749744,
                -0.39596653375775814,
                -0.5227330575674107,
                -0.2964893744675605,
                -0.5104397138439024,
                -0.9878617308118863
            ]
        ]
    ]
}