{
    "biases": [
        [
            [
                0.14851890503251333
            ],
            [
                -0.2788247532601525
            ],
            [
                -0.4091119901763234
            ],
            [
                0.7658959092058774
            ],
            [
                -1.9265396489512157
            ],
            [
                0.00982703365127028
            ],
            [
                0.5563731611691694
            ],
            [
                0.7910527797908076
            ],
            [
                -0.7615230658915894
            ],
            [
                -0.899611232476267
            ],
            [
                -1.1803771033268413
            ],
            [
                0.9436024283546216
            ],
            [
                1.885944757466032
            ],
            [
                -0.2346956630482483
            ],
            [
                -0.8247746963023258
            ],
            [
                1.2806415315958624
            ]
        ],
        [
            [
                -0.9761950267291938
            ],
            [
                -0.0050326565302401365
            ],
            [
                0.029115939097567666
            ],
            [
                -0.061815643557434845
            ],
            [
                1.7708780924666518
            ],
            [
                0.8542098822886302
            ],
            [
                -0.4650301913656166
            ],
            [
                -1.5081017374355656
            ]
        ],
        [
            [
                1.050590878684397
            ],
            [
                0.006916332279730648
            ],
            [
                -0.3653784215179319
            ]
        ]
    ],
    "sizes": [
        4,
        16,
        8,
        3
    ],
    "weights": [
        [
            [
                0.6914460801778646,
                -0.6082621136426825,
                0.2208588724734623,
                0.07001588226506242
            ],
            [
                0.21530385487763373,
                0.16655278333164786,
                0.9566129023640101,
                -0.235478988915919
            ],
            [
                0.7874568671795887,
                1.0240989151395563,
                1.679867332457254,
                -1.6006061326632819
            ],
            [
                0.8079625444675798,
                -0.2144833392373123,
                -1.7673188348895523,
                1.4424231668981287
            ],
            [
                -2.4229170556489517,
                2.18977963904724,
                -0.7760536190923316,
                -0.3073417348555344
            ],
            [
                -0.8079827693080185,
                1.730247464334356,
                -0.49793659141202035,
                0.18593198914396464
            ],
            [
                -0.8118091906979229,
                -0.7286223480834542,
                -1.133486134013439,
                0.1175829956702496
            ],
            [
                -0.7457219872249458,
                0.15343480419562033,
                -1.4744926834944074,
                1.2232999516994967
            ],
            [
                -0.8577313379641749,
                0.24278587070938487,
                -0.5738072833449043,
                1.4099923458591415
            ],
            [
                1.1216555929765648,
                0.16850881189801914,
                -0.7684870686340031,
                0.33797189875537276
            ],
            [
                -1.3793905986398756,
                1.3448339515879606,
                0.15745857621417045,
                0.2965861579185692
            ],
            [
                -0.09590441912780684,
                1.5021833454670497,
                -0.2425932519609677,
                0.30261306519542386
            ],
            [
                0.45970314016629227,
                1.516102125798225,
                -0.21250296806476052,
                -1.724960331323132
            ],
            [
                -1.641006094698996,
                -0.40291573553834326,
                0.668852266816926,
                -0.2026938820851907
            ],
            [
                -1.2924065530343636,
                -0.6868052830271333,
                0.572205143631069,
                -0.487016155853027
            ],
            [
                0.11875352762659895,
                -1.2201149869196277,
                0.7645443527303901,
                -0.23445371577312146
            ]
        ],
        [
            [
                0.7091384645772558,
                0.07751393389917371,
                0.29020244178451304,
                -0.3428041229390258,
                -0.30689839146480946,
                -2.6548380566092145,
                -0.16531061383187556,
                -0.6663072019370255,
                -0.662060909678911,
                -0.11785776449536078,
                -1.1401161768712957,
                -1.2270807694574783,
                1.0520930702303044,
                0.7548870018246544,
                0.4378492764257219,
                -1.1163087098916216
            ],
            [
                0.34832723403996085,
                -1.6342430451012073,
                1.8704389188476749,
                -0.439260953131325,
                0.7937148818089839,
                1.4075020841760182,
                1.168662558861354,
                -1.2199138868508794,
                0.8437112833630712,
                -0.21916200976115338,
                0.3414086121973225,
                0.6206559762224886,
                0.8033964248892642,
                -0.03312026694940106,
                -0.04058761706356404,
                1.159681020802573
            ],
            [
                -1.4820005888757017,
                0.9568282466116093,
                -1.2667417541668455,
                1.4102692601754794,
                2.2479017621671846,
                -0.25685759119904483,
                0.11151796855457662,
                0.2437217739741563,
                -0.22199736415932322,
                -0.29590333941436264,
                0.2826671970249654,
                -0.5163645164751252,
                -0.1643819632354738,
                0.864419133746613,
                -0.49100084042997627,
                0.39779077414865044
            ],
            [
                -1.1230234177887113,
                1.2833067583319577,
                0.9548050144492125,
                -2.049613586367953,
                -1.7457375396192316,
                -1.2943015037197412,
                -0.41765406538560496,
                0.7391298602657246,
                0.6848402651989708,
                0.4279597984670621,
                0.7467370161332288,
                0.09313382388110564,
                -0.31651813697940584,
                -0.3460542723221666,
                -1.9763247418748522,
                0.606773805923379
            ],
            [
                -1.2888737656305738,
                1.1939757190724751,
                -0.4235039078080522,
                -0.19055438391717158,
                -1.9075664661017477,
                1.0715836676091024,
                0.413980306161823,
                -1.0391073754945015,
                0.7461699054493054,
                0.1316155700946935,
                -0.42623883991497474,
                0.12207716021409681,
                0.017347441160994584,
                -0.8630958340948609,
                1.7207596951842588,
                0.41730956263541974
            ],
            [
                1.0120471361521979,
                -1.1201231885837724,
                0.9930903700003421,
                -0.15886458542105417,
                -0.33469602271096704,
                -0.8561895069961115,
                -0.4993198825288228,
                2.678046392829052,
                0.8353615459562772,
                1.370368954746553,
                1.0503517317067264,
                -1.1842196988394253,
                0.6884459297384272,
                0.8537019183467166,
                -0.671774692275071,
                -0.4541522218179109
            ],
            [
                -1.3356831185722253,
                1.8700595908578272,
                1.8813971188675782,
                1.6474805014029397,
                0.40688351095859615,
                0.756077235953366,
                -1.1780454468099353,
                0.46382021094074605,
                0.9895250483494459,
                -0.44494453941568735,
                -1.0702895303920463,
                0.5676177439266535,
                1.0518132945335399,
                0.5323520645391431,
                -0.2002785187449082,
                -1.171124944916995
            ],
            [
                0.40377631787484003,
                -0.35265822699830507,
                -0.3733247458702525,
                0.7679542995057824,
                0.30847007460154824,
                -1.3837203394152786,
                0.6181830588737184,
                1.0070530441110692,
                2.406906428331013,
                0.22169760838076985,
                0.046857645923093515,
                0.3314723820596553,
                -0.2840993335403822,
                -0.7288833625164982,
                1.0143832772679764,
                0.29708469413696353
            ]
        ],
        [
            [
                0.23228425873370084,
                -0.7913451698111813,
                1.3371426843160923,
                -0.7419457131470263,
                1.483210389132018,
                -0.5740923120931972,
                -1.1289568989440395,
                -2.6489901320166482
            ],
            [
                0.3096686440865833,
                -0.22133915362267592,
                0.29648822118239987,
                1.2980089475166643,
                -1.681333401196118,
                -0.08099364223675969,
                -0.01372395853818859,
                1.9239351991179219
            ],
            [
                0.017231624000352042,
                0.4249797622672917,
                0.5046514576894312,
                1.7571272467243493,
                -0.020576434317578978,
                -0.49247568920667,
                -1.1897326565888826,
                -0.6987845345214206
            ]
        ]
    ]
}